FANN_FLO_2.1
num_layers=3
learning_rate=0.000010
connection_rate=1.000000
network_type=0
learning_momentum=0.000000
training_algorithm=0
train_error_function=1
train_stop_function=0
cascade_output_change_fraction=0.010000
quickprop_decay=-0.000100
quickprop_mu=1.750000
rprop_increase_factor=1.200000
rprop_decrease_factor=0.500000
rprop_delta_min=0.000000
rprop_delta_max=50.000000
rprop_delta_zero=0.100000
cascade_output_stagnation_epochs=12
cascade_candidate_change_fraction=0.010000
cascade_candidate_stagnation_epochs=12
cascade_max_out_epochs=150
cascade_min_out_epochs=50
cascade_max_cand_epochs=150
cascade_min_cand_epochs=50
cascade_num_candidate_groups=2
bit_fail_limit=3.49999994039535522461e-01
cascade_candidate_limit=1.00000000000000000000e+03
cascade_weight_multiplier=4.00000005960464477539e-01
cascade_activation_functions_count=10
cascade_activation_functions=3 5 7 8 10 11 14 15 16 17 
cascade_activation_steepnesses_count=4
cascade_activation_steepnesses=2.50000000000000000000e-01 5.00000000000000000000e-01 7.50000000000000000000e-01 1.00000000000000000000e+00 
layer_sizes=25 51 3 
scale_included=0
neurons (num_inputs, activation_function, activation_steepness)=(0, 0, 0.00000000000000000000e+00) (0, 0, 0.00000000000000000000e+00) (0, 0, 0.00000000000000000000e+00) (0, 0, 0.00000000000000000000e+00) (0, 0, 0.00000000000000000000e+00) (0, 0, 0.00000000000000000000e+00) (0, 0, 0.00000000000000000000e+00) (0, 0, 0.00000000000000000000e+00) (0, 0, 0.00000000000000000000e+00) (0, 0, 0.00000000000000000000e+00) (0, 0, 0.00000000000000000000e+00) (0, 0, 0.00000000000000000000e+00) (0, 0, 0.00000000000000000000e+00) (0, 0, 0.00000000000000000000e+00) (0, 0, 0.00000000000000000000e+00) (0, 0, 0.00000000000000000000e+00) (0, 0, 0.00000000000000000000e+00) (0, 0, 0.00000000000000000000e+00) (0, 0, 0.00000000000000000000e+00) (0, 0, 0.00000000000000000000e+00) (0, 0, 0.00000000000000000000e+00) (0, 0, 0.00000000000000000000e+00) (0, 0, 0.00000000000000000000e+00) (0, 0, 0.00000000000000000000e+00) (0, 0, 0.00000000000000000000e+00) (25, 3, 5.00000000000000000000e-01) (25, 3, 5.00000000000000000000e-01) (25, 3, 5.00000000000000000000e-01) (25, 3, 5.00000000000000000000e-01) (25, 3, 5.00000000000000000000e-01) (25, 3, 5.00000000000000000000e-01) (25, 3, 5.00000000000000000000e-01) (25, 3, 5.00000000000000000000e-01) (25, 3, 5.00000000000000000000e-01) (25, 3, 5.00000000000000000000e-01) (25, 3, 5.00000000000000000000e-01) (25, 3, 5.00000000000000000000e-01) (25, 3, 5.00000000000000000000e-01) (25, 3, 5.00000000000000000000e-01) (25, 3, 5.00000000000000000000e-01) (25, 3, 5.00000000000000000000e-01) (25, 3, 5.00000000000000000000e-01) (25, 3, 5.00000000000000000000e-01) (25, 3, 5.00000000000000000000e-01) (25, 3, 5.00000000000000000000e-01) (25, 3, 5.00000000000000000000e-01) (25, 3, 5.00000000000000000000e-01) (25, 3, 5.00000000000000000000e-01) (25, 3, 5.00000000000000000000e-01) (25, 3, 5.00000000000000000000e-01) (25, 3, 5.00000000000000000000e-01) (25, 3, 5.00000000000000000000e-01) (25, 3, 5.00000000000000000000e-01) (25, 3, 5.00000000000000000000e-01) (25, 3, 5.00000000000000000000e-01) (25, 3, 5.00000000000000000000e-01) (25, 3, 5.00000000000000000000e-01) (25, 3, 5.00000000000000000000e-01) (25, 3, 5.00000000000000000000e-01) (25, 3, 5.00000000000000000000e-01) (25, 3, 5.00000000000000000000e-01) (25, 3, 5.00000000000000000000e-01) (25, 3, 5.00000000000000000000e-01) (25, 3, 5.00000000000000000000e-01) (25, 3, 5.00000000000000000000e-01) (25, 3, 5.00000000000000000000e-01) (25, 3, 5.00000000000000000000e-01) (25, 3, 5.00000000000000000000e-01) (25, 3, 5.00000000000000000000e-01) (25, 3, 5.00000000000000000000e-01) (25, 3, 5.00000000000000000000e-01) (25, 3, 5.00000000000000000000e-01) (25, 3, 5.00000000000000000000e-01) (25, 3, 5.00000000000000000000e-01) (25, 3, 5.00000000000000000000e-01) (0, 3, 0.00000000000000000000e+00) (51, 0, 5.00000000000000000000e-01) (51, 0, 5.00000000000000000000e-01) (0, 0, 0.00000000000000000000e+00) 
connections (connected_to_neuron, weight)=(0, 6.11788146197795867920e-02) (1, 3.31796407699584960938e-02) (2, 1.32683381438255310059e-01) (3, -6.43094256520271301270e-02) (4, 3.68656143546104431152e-02) (5, 1.74329429864883422852e-01) (6, 2.16465845704078674316e-01) (7, 2.01351553201675415039e-01) (8, -2.45545953512191772461e-01) (9, -2.26161181926727294922e-01) (10, -3.11292186379432678223e-02) (11, -9.00109857320785522461e-02) (12, 4.69777211546897888184e-02) (13, -2.70282328128814697266e-02) (14, 1.28201472759246826172e+00) (15, -9.39494594931602478027e-02) (16, 1.37654080986976623535e-01) (17, 2.12649896740913391113e-01) (18, 3.69777292013168334961e-01) (19, 1.10293030738830566406e-02) (20, 2.08688974380493164062e-02) (21, -5.88402822613716125488e-02) (22, -5.05012929439544677734e-01) (23, 1.50687456130981445312e-01) (24, 5.18227629363536834717e-02) (0, -1.02094568312168121338e-01) (1, -1.74076810479164123535e-01) (2, 4.24330532550811767578e-02) (3, -6.69975131750106811523e-02) (4, 4.14593480527400970459e-02) (5, -1.52281105518341064453e-01) (6, -4.44120764732360839844e-02) (7, -1.17173036560416221619e-02) (8, 1.70957550406455993652e-01) (9, 1.49629488587379455566e-01) (10, 2.20264792442321777344e-02) (11, 4.95542660355567932129e-02) (12, 3.45558896660804748535e-02) (13, -8.69123861193656921387e-02) (14, -6.81090593338012695312e-01) (15, 1.76083818078041076660e-01) (16, 6.68887048959732055664e-02) (17, -2.98390299081802368164e-01) (18, -2.37387806177139282227e-01) (19, 5.49301579594612121582e-02) (20, -2.81467065215110778809e-02) (21, -4.25950400531291961670e-02) (22, 1.31474733352661132812e-01) (23, -2.50452030450105667114e-02) (24, 3.12495753169059753418e-02) (0, -2.98798114061355590820e-01) (1, 5.85989952087402343750e-01) (2, 2.94111937284469604492e-01) (3, 4.18250083923339843750e-01) (4, 3.72450724244117736816e-02) (5, 3.28144192695617675781e-01) (6, 1.01402007043361663818e-01) (7, -7.92221054434776306152e-02) (8, -2.15280711650848388672e-01) (9, 8.15848559141159057617e-02) (10, 9.10294055938720703125e-03) (11, 7.67463222146034240723e-02) (12, 9.60301086306571960449e-02) (13, -2.41471305489540100098e-02) (14, 8.32258701324462890625e-01) (15, -1.17737434804439544678e-01) (16, -2.94944364577531814575e-02) (17, 5.10479271411895751953e-01) (18, 1.64634913206100463867e-01) (19, -8.90330299735069274902e-02) (20, 5.08305951952934265137e-02) (21, -9.49601605534553527832e-02) (22, 6.98663070797920227051e-02) (23, -7.62404277920722961426e-02) (24, -3.04160974919795989990e-02) (0, -1.13980531692504882812e+00) (1, 2.84596741199493408203e-01) (2, 2.45503589510917663574e-01) (3, 2.56120145320892333984e-01) (4, 2.33250975608825683594e-01) (5, -2.56108880043029785156e-01) (6, -2.60819315910339355469e-01) (7, -2.84679114818572998047e-01) (8, -4.21086810529232025146e-02) (9, 6.24308764934539794922e-01) (10, -9.47738885879516601562e-02) (11, 5.50463572144508361816e-02) (12, 2.54971757531166076660e-02) (13, -8.59579667448997497559e-02) (14, -9.74569261074066162109e-01) (15, -4.91102412343025207520e-02) (16, -5.07239818572998046875e-01) (17, 4.62752692401409149170e-02) (18, -5.31278789043426513672e-01) (19, 9.89978387951850891113e-02) (20, -7.73559361696243286133e-02) (21, 6.23737797141075134277e-02) (22, 1.09006476402282714844e+00) (23, -4.64516907930374145508e-01) (24, -5.00000379979610443115e-02) (0, -2.56893634796142578125e-01) (1, 4.27420258522033691406e-01) (2, 5.62016991898417472839e-03) (3, 1.33549854159355163574e-01) (4, 2.46213953942060470581e-02) (5, 1.54825568199157714844e-01) (6, 8.08424055576324462891e-02) (7, -1.06755532324314117432e-02) (8, -2.36601218581199645996e-01) (9, -8.05702209472656250000e-02) (10, 1.11316442489624023438e-02) (11, 9.75845754146575927734e-03) (12, -5.20063452422618865967e-02) (13, -9.03962254524230957031e-02) (14, 6.44390106201171875000e-01) (15, -2.74237487465143203735e-02) (16, -1.81849375367164611816e-01) (17, 3.65524381399154663086e-01) (18, 1.58414408564567565918e-01) (19, -7.11280852556228637695e-02) (20, -3.44584733247756958008e-02) (21, 2.31740102171897888184e-02) (22, -7.70274596288800239563e-03) (23, -1.51765763759613037109e-01) (24, 3.34707200527191162109e-02) (0, 4.09406810998916625977e-01) (1, -4.54404979944229125977e-01) (2, -1.21526479721069335938e-01) (3, -1.36542126536369323730e-01) (4, -4.02034409344196319580e-02) (5, 3.55392731726169586182e-02) (6, 1.82678259443491697311e-03) (7, -9.70194414258003234863e-02) (8, 3.38253915309906005859e-01) (9, 3.39645048370584845543e-04) (10, 6.69941380620002746582e-02) (11, 2.41705402731895446777e-02) (12, -9.48692858219146728516e-02) (13, -8.97442400455474853516e-02) (14, -6.45512342453002929688e-01) (15, 1.23451501131057739258e-01) (16, 1.04428477585315704346e-01) (17, -3.16898614168167114258e-01) (18, -1.93096667528152465820e-01) (19, 3.09911742806434631348e-02) (20, -7.41623789072036743164e-02) (21, -3.53070348501205444336e-02) (22, 1.71416848897933959961e-01) (23, 3.92782799899578094482e-02) (24, 7.35433995723724365234e-02) (0, -6.24074637889862060547e-01) (1, 8.59732747077941894531e-01) (2, 3.73324424028396606445e-01) (3, 4.66696560382843017578e-01) (4, 2.14701950550079345703e-01) (5, 6.21383823454380035400e-02) (6, -6.09237775206565856934e-02) (7, -1.32753506302833557129e-01) (8, -4.20989431440830230713e-02) (9, 1.75912544131278991699e-01) (10, 1.72536745667457580566e-02) (11, -2.98608392477035522461e-02) (12, 8.13526734709739685059e-02) (13, 9.91229787468910217285e-02) (14, 4.04511302709579467773e-01) (15, -1.64026334881782531738e-01) (16, -1.19213454425334930420e-01) (17, 6.08212828636169433594e-01) (18, -3.27780991792678833008e-02) (19, 7.63728842139244079590e-02) (20, 6.96785226464271545410e-02) (21, -2.45235711336135864258e-02) (22, 3.51920694112777709961e-01) (23, -2.37037226557731628418e-01) (24, 5.64359985291957855225e-02) (0, -3.90129923820495605469e-01) (1, -1.76558315753936767578e-01) (2, -1.28535315394401550293e-01) (3, 3.31236259080469608307e-03) (4, -9.92496237158775329590e-02) (5, -2.77135550975799560547e-01) (6, -6.11530169844627380371e-02) (7, -7.73834586143493652344e-02) (8, 1.89141884446144104004e-01) (9, 2.16460138559341430664e-01) (10, 8.82815942168235778809e-02) (11, 2.28736624121665954590e-02) (12, 5.36999925971031188965e-02) (13, -7.74926841259002685547e-02) (14, -1.34439098834991455078e+00) (15, 3.12558203935623168945e-01) (16, -1.45322708413004875183e-02) (17, -5.02787232398986816406e-01) (18, -3.45454990863800048828e-01) (19, 3.88839766383171081543e-02) (20, 8.81394222378730773926e-02) (21, 9.85275581479072570801e-02) (22, 4.82235968112945556641e-01) (23, -3.85013818740844726562e-02) (24, -5.81589639186859130859e-02) (0, -2.31984391808509826660e-01) (1, -1.23001877218484878540e-02) (2, -1.31785990670323371887e-02) (3, 3.05059198290109634399e-02) (4, -1.58578772097826004028e-02) (5, -3.77800166606903076172e-01) (6, -1.35390445590019226074e-01) (7, -7.62493312358856201172e-02) (8, 1.11118592321872711182e-01) (9, 1.71345546841621398926e-01) (10, -9.88490879535675048828e-03) (11, -1.13465338945388793945e-02) (12, 3.17237451672554016113e-02) (13, -2.08118110895156860352e-02) (14, -6.98388874530792236328e-01) (15, 1.10806614160537719727e-01) (16, -1.09042964875698089600e-01) (17, -2.00053676962852478027e-01) (18, -1.43386900424957275391e-01) (19, -1.00229009985923767090e-02) (20, 5.23172840476036071777e-02) (21, 4.07156720757484436035e-02) (22, 1.29711598157882690430e-01) (23, -1.13473817706108093262e-01) (24, 1.37561245355755090714e-03) (0, -3.06865155696868896484e-01) (1, -5.17453402280807495117e-02) (2, 1.59777045249938964844e-01) (3, -2.91792210191488265991e-02) (4, 5.23920506238937377930e-02) (5, -2.40367323160171508789e-01) (6, -1.22318519279360771179e-02) (7, -1.03295724838972091675e-02) (8, 9.36299264430999755859e-02) (9, 2.11520999670028686523e-01) (10, 9.96666774153709411621e-02) (11, 3.13725695013999938965e-02) (12, 4.20171096920967102051e-02) (13, -1.24559625983238220215e-02) (14, -7.92552113533020019531e-01) (15, 1.46085768938064575195e-01) (16, 6.51158243417739868164e-02) (17, -2.16680541634559631348e-01) (18, -2.74401009082794189453e-01) (19, -4.31526862084865570068e-02) (20, -5.09098172187805175781e-03) (21, -3.61017733812332153320e-02) (22, 3.57324451208114624023e-01) (23, -4.57289218902587890625e-02) (24, -7.51371607184410095215e-02) (0, 4.23928678035736083984e-01) (1, -2.94009357690811157227e-01) (2, 2.49230638146400451660e-02) (3, -2.35560461878776550293e-01) (4, -2.05799221992492675781e-01) (5, -2.52245869487524032593e-02) (6, 6.12315721809864044189e-02) (7, 2.12225869297981262207e-01) (8, -1.05109192430973052979e-01) (9, -4.62500214576721191406e-01) (10, 2.16635316610336303711e-02) (11, 8.73941183090209960938e-03) (12, -5.87253607809543609619e-02) (13, 1.43967717885971069336e-02) (14, 7.65780448913574218750e-01) (15, 9.92129296064376831055e-02) (16, 3.49228024482727050781e-01) (17, -2.66361773014068603516e-01) (18, 3.21980357170104980469e-01) (19, -9.83925089240074157715e-02) (20, 2.35075727105140686035e-02) (21, -5.81015273928642272949e-02) (22, -6.76991939544677734375e-01) (23, 4.19877529144287109375e-01) (24, -1.90042471513152122498e-03) (0, -4.12309169769287109375e-01) (1, 5.86830258369445800781e-01) (2, 2.70307630300521850586e-01) (3, 3.91206622123718261719e-01) (4, 5.84788210690021514893e-02) (5, 3.08464467525482177734e-01) (6, 7.60371088981628417969e-02) (7, -2.12045796215534210205e-02) (8, -5.64383082091808319092e-02) (9, 2.34392676502466201782e-02) (10, 4.49033081531524658203e-03) (11, -7.92959183454513549805e-02) (12, -6.85881227254867553711e-02) (13, 8.52477923035621643066e-02) (14, 7.27307081222534179688e-01) (15, -1.19005173444747924805e-01) (16, -1.12273007631301879883e-01) (17, 4.64780807495117187500e-01) (18, 1.79780423641204833984e-01) (19, -7.86918923258781433105e-02) (20, -3.60846668481826782227e-02) (21, 3.43700572848320007324e-02) (22, 1.47383868694305419922e-01) (23, -2.16691344976425170898e-02) (24, -4.72459606826305389404e-02) (0, 5.06589353084564208984e-01) (1, -3.65985900163650512695e-01) (2, -2.19112783670425415039e-01) (3, -1.55604496598243713379e-01) (4, -6.05878457427024841309e-02) (5, 1.53539165854454040527e-01) (6, 1.30372941493988037109e-01) (7, 7.80089572072029113770e-02) (8, -4.48172986507415771484e-02) (9, -2.51872479915618896484e-01) (10, 8.62434133887290954590e-02) (11, 4.10781428217887878418e-02) (12, -1.24841406941413879395e-02) (13, -3.12662869691848754883e-02) (14, 3.64043205976486206055e-01) (15, -4.34491373598575592041e-02) (16, 2.19004809856414794922e-01) (17, -4.40952740609645843506e-02) (18, 2.03328877687454223633e-01) (19, 5.84718361496925354004e-02) (20, 3.10282409191131591797e-03) (21, -4.46253418922424316406e-02) (22, -4.74056184291839599609e-01) (23, 2.43350401520729064941e-01) (24, -8.54035094380378723145e-02) (0, -1.00425255298614501953e+00) (1, 6.77911341190338134766e-01) (2, 5.41393518447875976562e-01) (3, 3.25655192136764526367e-01) (4, 1.40036195516586303711e-01) (5, -2.42737606167793273926e-01) (6, -3.68509292602539062500e-02) (7, -1.41841217875480651855e-01) (8, 5.77904917299747467041e-02) (9, 3.65131527185440063477e-01) (10, -6.47301375865936279297e-02) (11, -1.40172019600868225098e-02) (12, -7.23528489470481872559e-02) (13, -9.59502905607223510742e-03) (14, -3.21602165699005126953e-01) (15, 6.80862143635749816895e-02) (16, -2.11592197418212890625e-01) (17, 3.50602656602859497070e-01) (18, -2.60906487703323364258e-01) (19, 4.53820899128913879395e-02) (20, -2.47697457671165466309e-02) (21, 3.42270210385322570801e-02) (22, 6.45622491836547851562e-01) (23, -2.09052816033363342285e-01) (24, -2.79530901461839675903e-02) (0, 2.67589569091796875000e-01) (1, 1.11134454607963562012e-01) (2, -1.20046555995941162109e-01) (3, 1.06322400271892547607e-01) (4, -9.71026420593261718750e-02) (5, 3.77280056476593017578e-01) (6, 6.59959483891725540161e-03) (7, 1.73563569784164428711e-01) (8, -2.34720215201377868652e-01) (9, -2.16193005442619323730e-01) (10, 8.32715556025505065918e-02) (11, -9.16370004415512084961e-03) (12, -8.97428691387176513672e-02) (13, -4.55011427402496337891e-03) (14, 1.01480233669281005859e+00) (15, -1.70326560735702514648e-01) (16, 1.60734094679355621338e-02) (17, 3.35162162780761718750e-01) (18, 3.00274640321731567383e-01) (19, -7.88752809166908264160e-02) (20, 1.07804909348487854004e-02) (21, -4.63703870773315429688e-02) (22, -3.36760818958282470703e-01) (23, 7.26976022124290466309e-02) (24, -1.84472072869539260864e-02) (0, -5.25997400283813476562e-01) (1, 6.29556119441986083984e-01) (2, 1.11101225018501281738e-01) (3, 2.84676730632781982422e-01) (4, 1.27761468291282653809e-01) (5, 1.42347022891044616699e-01) (6, -5.49128502607345581055e-02) (7, -4.62131612002849578857e-02) (8, -2.75174528360366821289e-01) (9, 1.92055791616439819336e-01) (10, 4.38749268651008605957e-02) (11, 5.66351637244224548340e-02) (12, -8.95471200346946716309e-02) (13, 9.25078988075256347656e-04) (14, 5.72834372520446777344e-01) (15, -2.10924655199050903320e-01) (16, -2.54347622394561767578e-01) (17, 5.19138395786285400391e-01) (18, 9.06330123543739318848e-02) (19, 7.96465054154396057129e-02) (20, 2.28357091546058654785e-02) (21, 5.74699565768241882324e-02) (22, 1.32625654339790344238e-01) (23, -1.58623456954956054688e-02) (24, -2.93436944484710693359e-02) (0, 4.26974058151245117188e-01) (1, -4.50074374675750732422e-02) (2, -1.44205108284950256348e-01) (3, -7.73184001445770263672e-02) (4, -2.77343839406967163086e-02) (5, 1.74103721976280212402e-01) (6, 3.95735017955303192139e-02) (7, 1.66379913687705993652e-01) (8, -2.05793604254722595215e-01) (9, -2.50998646020889282227e-01) (10, 2.02873125672340393066e-02) (11, 9.40752029418945312500e-03) (12, -2.69800499081611633301e-02) (13, 7.08840861916542053223e-02) (14, 7.03348219394683837891e-01) (15, -1.70789986848831176758e-01) (16, 5.20655401051044464111e-02) (17, 1.65047630667686462402e-01) (18, 1.88742220401763916016e-01) (19, -8.43159258365631103516e-02) (20, 2.80217602849006652832e-02) (21, 2.64414325356483459473e-02) (22, -3.42356294393539428711e-01) (23, 1.06799662113189697266e-01) (24, 9.87041071057319641113e-02) (0, 7.04829633235931396484e-01) (1, -3.46942216157913208008e-01) (2, -1.50092199444770812988e-01) (3, -8.07878002524375915527e-02) (4, -6.69634938240051269531e-02) (5, 4.56272959709167480469e-02) (6, 1.08864307403564453125e-01) (7, 1.25881329178810119629e-01) (8, 3.74502278864383697510e-02) (9, -2.72418975830078125000e-01) (10, -1.66041329503059387207e-02) (11, 5.66644743084907531738e-02) (12, -7.69322067499160766602e-02) (13, -5.34921362996101379395e-02) (14, 4.18545156717300415039e-01) (15, 7.42950709536671638489e-03) (16, 3.33785802125930786133e-01) (17, -1.28832489252090454102e-01) (18, 2.13734090328216552734e-01) (19, 3.76792624592781066895e-02) (20, -8.78260135650634765625e-02) (21, 8.45887884497642517090e-02) (22, -5.76029717922210693359e-01) (23, 2.42380633950233459473e-01) (24, -5.00502139329910278320e-02) (0, -4.35331851243972778320e-01) (1, 7.68405720591545104980e-02) (2, 2.65834093093872070312e-01) (3, 1.59468814730644226074e-01) (4, 8.74026417732238769531e-02) (5, -8.95669311285018920898e-02) (6, -1.06318280100822448730e-01) (7, -1.08461298048496246338e-01) (8, 1.07498407363891601562e-01) (9, 1.11062847077846527100e-01) (10, -4.17494289577007293701e-02) (11, 5.65052703022956848145e-02) (12, 5.88081255555152893066e-02) (13, 4.53911349177360534668e-02) (14, -3.90373587608337402344e-01) (15, 7.12786689400672912598e-02) (16, -1.13572165369987487793e-01) (17, -8.57362002134323120117e-02) (18, -1.19454264640808105469e-01) (19, -2.47051268815994262695e-02) (20, -5.76910376548767089844e-02) (21, 8.97728428244590759277e-02) (22, 2.43668839335441589355e-01) (23, -1.11475706100463867188e-01) (24, 2.01481785625219345093e-02) (0, -2.26850107312202453613e-01) (1, -4.17715795338153839111e-02) (2, 1.29027947783470153809e-01) (3, -8.25394615530967712402e-02) (4, 3.09088323265314102173e-02) (5, -2.38101050257682800293e-01) (6, -6.21576420962810516357e-02) (7, -1.38394355773925781250e-01) (8, 1.79296091198921203613e-01) (9, 1.19744464755058288574e-01) (10, 4.37896475195884704590e-02) (11, 3.96581739187240600586e-03) (12, 1.58632025122642517090e-02) (13, -8.04714784026145935059e-02) (14, -8.14393937587738037109e-01) (15, 1.84777334332466125488e-01) (16, -3.51344235241413116455e-03) (17, -1.88679650425910949707e-01) (18, -2.18011885881423950195e-01) (19, -7.68297761678695678711e-02) (20, -2.22699344158172607422e-03) (21, -7.84483551979064941406e-02) (22, 2.47165679931640625000e-01) (23, -6.04429654777050018311e-02) (24, 5.36926798522472381592e-02) (0, -3.29271167516708374023e-01) (1, 3.81623744964599609375e-01) (2, 2.47073307633399963379e-01) (3, 3.53770345449447631836e-01) (4, 7.34002590179443359375e-02) (5, 1.13229840993881225586e-01) (6, 4.02738414704799652100e-02) (7, -4.21214587986469268799e-02) (8, -7.14827375486493110657e-03) (9, 1.97676867246627807617e-01) (10, 1.18134021759033203125e-02) (11, 2.25122421979904174805e-02) (12, -1.83510407805442810059e-02) (13, 6.85274675488471984863e-02) (14, 3.96363794803619384766e-01) (15, -5.02698495984077453613e-02) (16, -9.31219533085823059082e-02) (17, 4.25743281841278076172e-01) (18, 3.49623449146747589111e-02) (19, 3.18456366658210754395e-02) (20, 9.02463272213935852051e-02) (21, -8.08679834008216857910e-02) (22, 5.57002164423465728760e-02) (23, -1.39482459053397178650e-02) (24, 3.17209996283054351807e-02) (0, 6.86173796653747558594e-01) (1, -5.74166953563690185547e-01) (2, -3.15989941358566284180e-01) (3, -2.99719154834747314453e-01) (4, -2.38767787814140319824e-01) (5, 1.27237200736999511719e-01) (6, -1.16101056337356567383e-02) (7, 6.65665864944458007812e-02) (8, -1.06424972414970397949e-01) (9, -2.22737312316894531250e-01) (10, 7.83787444233894348145e-02) (11, 1.45938172936439514160e-02) (12, 3.04578766226768493652e-02) (13, -4.52739670872688293457e-02) (14, 2.25974619388580322266e-01) (15, -2.65693441033363342285e-02) (16, 2.24277555942535400391e-01) (17, -2.96424776315689086914e-01) (18, 2.48423382639884948730e-01) (19, 3.50669100880622863770e-02) (20, -4.20659482479095458984e-02) (21, 4.34077903628349304199e-02) (22, -5.43955862522125244141e-01) (23, 1.38031467795372009277e-01) (24, -9.07988324761390686035e-02) (0, 7.95955955982208251953e-01) (1, -5.21296083927154541016e-01) (2, -2.52910465002059936523e-01) (3, 7.08246007561683654785e-02) (4, 2.07343231886625289917e-02) (5, 1.26869410276412963867e-01) (6, 4.12016734480857849121e-02) (7, 1.51816070079803466797e-01) (8, 5.36313168704509735107e-02) (9, -3.98922771215438842773e-01) (10, 3.90537083148956298828e-03) (11, -8.07546079158782958984e-02) (12, 1.84058174490928649902e-02) (13, 4.81766983866691589355e-02) (14, 4.56380188465118408203e-01) (15, 7.92134106159210205078e-02) (16, 3.86337578296661376953e-01) (17, -5.23129478096961975098e-02) (18, 1.77098006010055541992e-01) (19, 8.12814608216285705566e-02) (20, -3.23431566357612609863e-02) (21, 4.19870093464851379395e-02) (22, -6.21563673019409179688e-01) (23, 3.74749600887298583984e-01) (24, 3.54204662144184112549e-02) (0, -5.41513621807098388672e-01) (1, 3.29043447971343994141e-01) (2, -7.81674459576606750488e-02) (3, 9.72387120127677917480e-02) (4, 1.65881812572479248047e-01) (5, -2.66344368457794189453e-01) (6, -1.47206962108612060547e-01) (7, -1.92793458700180053711e-01) (8, 2.56929427385330200195e-01) (9, 4.50225830078125000000e-01) (10, 3.50571796298027038574e-02) (11, -2.39295512437820434570e-02) (12, 2.00052410364151000977e-02) (13, 9.87327322363853454590e-02) (14, -1.12748265266418457031e+00) (15, 7.43873491883277893066e-02) (16, -2.66365021467208862305e-01) (17, -1.68151021003723144531e-01) (18, -3.88047754764556884766e-01) (19, -4.91852052509784698486e-02) (20, -2.23444625735282897949e-02) (21, -5.54351769387722015381e-02) (22, 8.78023326396942138672e-01) (23, -4.36705410480499267578e-01) (24, -2.51551177352666854858e-02) (0, -1.97708711028099060059e-01) (1, -1.22250221669673919678e-01) (2, -2.62989308685064315796e-02) (3, -1.23437970876693725586e-01) (4, -3.11348494142293930054e-02) (5, -2.16539770364761352539e-01) (6, -2.09175832569599151611e-02) (7, -1.32261797785758972168e-01) (8, 1.50338858366012573242e-01) (9, 2.64830708503723144531e-01) (10, -2.02197805047035217285e-02) (11, 1.90690755844116210938e-02) (12, -7.08663240075111389160e-02) (13, -7.03409165143966674805e-02) (14, -1.14747536182403564453e+00) (15, 1.65223896503448486328e-01) (16, 4.53457273542881011963e-02) (17, -3.58448833227157592773e-01) (18, -4.02163088321685791016e-01) (19, 6.34489879012107849121e-02) (20, 5.90905547142028808594e-05) (21, -2.60984301567077636719e-02) (22, 4.30816709995269775391e-01) (23, -1.98626160621643066406e-01) (24, -8.28455314040184020996e-02) (0, 5.53935170173645019531e-01) (1, -1.71007439494132995605e-01) (2, -2.90421605110168457031e-01) (3, -1.43804401159286499023e-01) (4, -2.02887877821922302246e-01) (5, 2.51467466354370117188e-01) (6, 2.28097289800643920898e-02) (7, 1.86854466795921325684e-01) (8, -5.60369454324245452881e-02) (9, -1.70137077569961547852e-01) (10, 8.06130841374397277832e-02) (11, 6.99069350957870483398e-03) (12, 4.87566962838172912598e-02) (13, 1.49684771895408630371e-02) (14, 5.41052997112274169922e-01) (15, -1.30132794380187988281e-01) (16, 1.56654000282287597656e-01) (17, -7.52083305269479751587e-03) (18, 1.92482858896255493164e-01) (19, -7.55922198295593261719e-02) (20, -7.41716474294662475586e-03) (21, -7.49878734350204467773e-02) (22, -3.07742297649383544922e-01) (23, 7.40460529923439025879e-02) (24, -2.75712683796882629395e-02) (0, -1.76593959331512451172e-01) (1, 1.92509695887565612793e-01) (2, 1.96581095457077026367e-01) (3, 7.59692564606666564941e-02) (4, -2.91585046797990798950e-02) (5, 6.76583126187324523926e-02) (6, 4.62325438857078552246e-02) (7, 1.10535658895969390869e-01) (8, -1.14959947764873504639e-01) (9, -3.47970239818096160889e-02) (10, -5.49538843333721160889e-02) (11, 6.64555504918098449707e-02) (12, -1.72421187162399291992e-02) (13, -7.74791091680526733398e-02) (14, 2.38873943686485290527e-01) (15, -9.16209444403648376465e-02) (16, -1.48782774806022644043e-01) (17, 1.08747407793998718262e-01) (18, 1.47490382194519042969e-01) (19, 1.81024447083473205566e-02) (20, 6.62483051419258117676e-02) (21, -4.07002046704292297363e-02) (22, 5.25994561612606048584e-02) (23, -1.25374317169189453125e-01) (24, 5.70876672863960266113e-02) (0, 3.01464736461639404297e-01) (1, 2.31201454997062683105e-01) (2, -1.61156151443719863892e-03) (3, 1.73506960272789001465e-01) (4, -7.20846131443977355957e-02) (5, 3.60687345266342163086e-01) (6, 4.78657409548759460449e-02) (7, 2.79379431158304214478e-02) (8, -3.27973395586013793945e-01) (9, -1.39760166406631469727e-01) (10, -6.36872798204421997070e-02) (11, 6.58725872635841369629e-02) (12, -6.68219029903411865234e-02) (13, -6.62606805562973022461e-02) (14, 1.15614438056945800781e+00) (15, -2.18826159834861755371e-01) (16, -7.26874172687530517578e-02) (17, 5.68151473999023437500e-01) (18, 3.40931802988052368164e-01) (19, 1.30633264780044555664e-03) (20, -1.79988294839859008789e-02) (21, 8.79242941737174987793e-02) (22, -2.93976008892059326172e-01) (23, 7.21324533224105834961e-02) (24, 7.98111259937286376953e-02) (0, -6.84258520603179931641e-01) (1, 5.37228703498840332031e-01) (2, 2.52615690231323242188e-01) (3, 3.54819864034652709961e-01) (4, 1.10445976257324218750e-01) (5, 1.19525544345378875732e-01) (6, -7.26535990834236145020e-02) (7, -1.59383103251457214355e-01) (8, 6.01779557764530181885e-02) (9, 3.26125353574752807617e-01) (10, 3.57688739895820617676e-02) (11, -6.88667073845863342285e-02) (12, -2.20082774758338928223e-02) (13, 6.00760802626609802246e-02) (14, 6.68358132243156433105e-02) (15, 3.12757380306720733643e-02) (16, -4.27227281033992767334e-02) (17, 4.14526343345642089844e-01) (18, -1.31698265671730041504e-01) (19, -6.98718875646591186523e-02) (20, 9.20300260186195373535e-02) (21, -2.82018631696701049805e-02) (22, 3.51776361465454101562e-01) (23, -1.25784650444984436035e-01) (24, -8.23570787906646728516e-02) (0, -1.11847013235092163086e-01) (1, 1.14908769726753234863e-01) (2, -7.61531814932823181152e-02) (3, 1.19287647306919097900e-01) (4, 3.21741960942745208740e-02) (5, 2.31359899044036865234e-01) (6, 5.77280446887016296387e-02) (7, -4.89663369953632354736e-02) (8, -1.60645544528961181641e-01) (9, -4.21881228685379028320e-02) (10, 2.13510170578956604004e-02) (11, -8.25799107551574707031e-02) (12, 4.52495291829109191895e-02) (13, 3.70526239275932312012e-02) (14, 5.15940845012664794922e-01) (15, -4.73803542554378509521e-02) (16, -7.26707279682159423828e-02) (17, 1.56269431114196777344e-01) (18, 3.03934402763843536377e-02) (19, -6.71024397015571594238e-02) (20, -4.27715294063091278076e-02) (21, 9.78848263621330261230e-02) (22, -1.27312034368515014648e-01) (23, -4.89564724266529083252e-02) (24, -9.33286100625991821289e-02) (0, 6.57711774110794067383e-02) (1, 1.73208504915237426758e-01) (2, -2.83066015690565109253e-02) (3, 2.36801773309707641602e-01) (4, 5.02106687054038047791e-03) (5, 2.71838068962097167969e-01) (6, 1.29134193062782287598e-01) (7, 9.61880572140216827393e-03) (8, -1.48288026452064514160e-01) (9, -9.38211306929588317871e-02) (10, 7.95593038201332092285e-02) (11, -1.41426622867584228516e-02) (12, -6.95890411734580993652e-02) (13, -9.89048555493354797363e-02) (14, 7.99503803253173828125e-01) (15, -1.51201695203781127930e-01) (16, -1.18038766086101531982e-02) (17, 3.92858892679214477539e-01) (18, 1.66990235447883605957e-01) (19, -4.05012182891368865967e-02) (20, 1.99521183967590332031e-02) (21, 9.25425365567207336426e-02) (22, -1.65500476956367492676e-01) (23, 9.30582135915756225586e-02) (24, -8.45175832509994506836e-02) (0, 4.69101637601852416992e-01) (1, 4.31144190952181816101e-03) (2, -3.79691690206527709961e-01) (3, 1.59815758466720581055e-01) (4, -1.12961083650588989258e-01) (5, 3.13216626644134521484e-01) (6, 6.45413771271705627441e-02) (7, 1.72916084527969360352e-01) (8, -1.99991166591644287109e-01) (9, -3.46090644598007202148e-01) (10, 4.29850816726684570312e-03) (11, 9.38811078667640686035e-02) (12, -9.92054194211959838867e-02) (13, 3.88335660099983215332e-02) (14, 1.26811432838439941406e+00) (15, -3.74736666679382324219e-01) (16, 1.20581418275833129883e-01) (17, 3.98782968521118164062e-01) (18, 4.02099400758743286133e-01) (19, 1.94879993796348571777e-02) (20, -1.04118734598159790039e-02) (21, -7.25786760449409484863e-02) (22, -5.76551496982574462891e-01) (23, 7.83000141382217407227e-02) (24, -2.43600811809301376343e-02) (0, 1.95497646927833557129e-01) (1, 2.20977783203125000000e-01) (2, -1.05903699994087219238e-01) (3, 3.11227552592754364014e-02) (4, -1.02414496243000030518e-01) (5, 3.02253931760787963867e-01) (6, 1.61810711026191711426e-01) (7, 7.74097144603729248047e-02) (8, -1.90098926424980163574e-01) (9, -3.06342523545026779175e-02) (10, 4.06137034296989440918e-02) (11, 1.51201263070106506348e-02) (12, -5.26061244308948516846e-02) (13, -5.48618845641613006592e-02) (14, 7.94761121273040771484e-01) (15, -2.04242154955863952637e-01) (16, -3.25990072451531887054e-03) (17, 2.87343740463256835938e-01) (18, 2.24626094102859497070e-01) (19, -1.17298215627670288086e-02) (20, 2.25595384836196899414e-03) (21, 6.44377842545509338379e-02) (22, -3.55947136878967285156e-01) (23, 6.37179836630821228027e-02) (24, -1.11917462199926376343e-02) (0, -3.97943407297134399414e-01) (1, 5.70545732975006103516e-01) (2, 2.49261766672134399414e-01) (3, 3.60455632209777832031e-01) (4, 1.47360250353813171387e-01) (5, 2.05540448427200317383e-01) (6, -4.94528338313102722168e-02) (7, -1.04578463360667228699e-02) (8, -9.85136628150939941406e-02) (9, 1.50139257311820983887e-01) (10, -9.57014262676239013672e-02) (11, 4.32130768895149230957e-02) (12, 2.24238634109497070312e-03) (13, -1.25978365540504455566e-02) (14, 2.93944329023361206055e-01) (15, -8.83057415485382080078e-02) (16, -1.86017975211143493652e-01) (17, 4.05907332897186279297e-01) (18, 8.13281312584877014160e-02) (19, -2.68460139632225036621e-02) (20, 6.70423284173011779785e-02) (21, -8.72479677200317382812e-02) (22, 1.22961901128292083740e-01) (23, -4.36674393713474273682e-02) (24, -1.64201743900775909424e-02) (0, -5.92420578002929687500e-01) (1, 1.16137437522411346436e-01) (2, 9.72597822546958923340e-02) (3, -6.78478181362152099609e-02) (4, 1.46409004926681518555e-01) (5, -2.16670021414756774902e-01) (6, -2.23392561078071594238e-01) (7, -2.24786728620529174805e-01) (8, 8.82306396961212158203e-02) (9, 3.66609513759613037109e-01) (10, 2.12201029062271118164e-02) (11, -5.52996657788753509521e-02) (12, -1.87218263745307922363e-02) (13, -5.50590865314006805420e-02) (14, -1.22097361087799072266e+00) (15, 2.22881108522415161133e-01) (16, -2.03222051262855529785e-01) (17, -3.27978610992431640625e-01) (18, -4.73405838012695312500e-01) (19, 3.66416648030281066895e-02) (20, -1.29560977220535278320e-02) (21, 8.25095102190971374512e-02) (22, 8.70769858360290527344e-01) (23, -4.71610546112060546875e-01) (24, 2.56006680428981781006e-02) (0, -8.19977819919586181641e-01) (1, 5.03526866436004638672e-01) (2, 2.76900678873062133789e-01) (3, 2.29325577616691589355e-01) (4, 2.82778829336166381836e-01) (5, -1.79953034967184066772e-02) (6, 7.00544789433479309082e-02) (7, -5.25469109416007995605e-02) (8, -2.95093685388565063477e-01) (9, 1.72333315014839172363e-01) (10, -8.21369662880897521973e-02) (11, -9.43385586142539978027e-02) (12, 3.24615314602851867676e-02) (13, 5.06427064538002014160e-02) (14, 5.80094933509826660156e-01) (15, -1.98594003915786743164e-01) (16, -3.29938232898712158203e-01) (17, 5.01442015171051025391e-01) (18, 1.85641199350357055664e-02) (19, 1.68037265539169311523e-02) (20, -9.20164212584495544434e-02) (21, -8.99507403373718261719e-02) (22, 3.04686039686203002930e-01) (23, -2.73943275213241577148e-01) (24, -3.14777810126543045044e-03) (0, -1.09109115600585937500e+00) (1, 5.99665760993957519531e-01) (2, 2.44005054235458374023e-01) (3, 9.52883884310722351074e-02) (4, 3.52820426225662231445e-01) (5, -4.96992617845535278320e-01) (6, -1.37912392616271972656e-01) (7, -1.32402107119560241699e-01) (8, 3.69985140860080718994e-02) (9, 5.63382387161254882812e-01) (10, 7.44518414139747619629e-02) (11, 6.49048313498497009277e-02) (12, 3.68189290165901184082e-02) (13, -6.73526525497436523438e-02) (14, -1.08456587791442871094e+00) (15, 1.31029009819030761719e-01) (16, -4.15265619754791259766e-01) (17, 8.70241597294807434082e-02) (18, -3.32612544298171997070e-01) (19, -9.88469123840332031250e-02) (20, -1.83811038732528686523e-03) (21, 2.28871405124664306641e-03) (22, 8.30267250537872314453e-01) (23, -6.70464456081390380859e-01) (24, 2.78038457036018371582e-02) (0, -4.97125625610351562500e-01) (1, 6.36289954185485839844e-01) (2, 3.62985759973526000977e-01) (3, 4.75050061941146850586e-01) (4, 5.02348206937313079834e-02) (5, 1.14738903939723968506e-01) (6, -6.48043006658554077148e-02) (7, -1.34680002927780151367e-01) (8, -7.61831328272819519043e-02) (9, 2.27401062846183776855e-01) (10, 9.26744267344474792480e-02) (11, 1.90012007951736450195e-02) (12, -6.89559653401374816895e-02) (13, 8.50742682814598083496e-02) (14, 5.14577865600585937500e-01) (15, -2.64228116720914840698e-02) (16, -1.09143510460853576660e-01) (17, 4.55314159393310546875e-01) (18, 1.01946428418159484863e-01) (19, 9.21734645962715148926e-02) (20, -3.86593528091907501221e-02) (21, 5.90245798230171203613e-02) (22, 2.12214216589927673340e-01) (23, -1.54497936367988586426e-01) (24, 1.75633672624826431274e-02) (0, -4.29307252168655395508e-01) (1, 5.96267461776733398438e-01) (2, 1.23254083096981048584e-01) (3, 1.59939214587211608887e-01) (4, -6.08940571546554565430e-02) (5, 1.58365517854690551758e-01) (6, -7.16929063200950622559e-02) (7, -2.13354349136352539062e-01) (8, -3.96483354270458221436e-02) (9, 2.36065536737442016602e-01) (10, -2.48913764953613281250e-02) (11, 1.96854695677757263184e-02) (12, 2.10829749703407287598e-02) (13, -1.64523795247077941895e-02) (14, -1.30882993340492248535e-01) (15, -2.82285306602716445923e-02) (16, -3.10264140367507934570e-01) (17, 4.59233611822128295898e-01) (18, -1.26334786415100097656e-01) (19, -3.87036874890327453613e-02) (20, -8.49379301071166992188e-02) (21, -2.53828093409538269043e-02) (22, 3.50614517927169799805e-01) (23, -2.94315367937088012695e-01) (24, -9.22293439507484436035e-02) (0, -5.40702283382415771484e-01) (1, 2.92680472135543823242e-01) (2, 1.86663880944252014160e-01) (3, 7.40165710449218750000e-02) (4, -1.76389142870903015137e-01) (5, -1.18677772581577301025e-01) (6, -9.43404212594032287598e-02) (7, -2.41748690605163574219e-01) (8, 4.63010035455226898193e-02) (9, 2.08091348409652709961e-01) (10, -9.54739749431610107422e-02) (11, -4.92981784045696258545e-02) (12, 2.30418816208839416504e-02) (13, -8.56910496950149536133e-02) (14, -5.05647540092468261719e-01) (15, 1.17357179522514343262e-01) (16, -2.85490125417709350586e-01) (17, 6.66176527738571166992e-02) (18, -2.09221675992012023926e-01) (19, 7.29652121663093566895e-02) (20, -1.08910873532295227051e-02) (21, 5.36332204937934875488e-02) (22, 4.45537120103836059570e-01) (23, -3.49971741437911987305e-01) (24, -6.90334290266036987305e-02) (0, 3.26288193464279174805e-01) (1, -4.12619322538375854492e-01) (2, -1.63702443242073059082e-01) (3, -1.69727861881256103516e-01) (4, -5.97798675298690795898e-02) (5, -5.13319075107574462891e-02) (6, 6.10714256763458251953e-02) (7, -6.78934156894683837891e-02) (8, 1.24696148559451103210e-02) (9, -1.34839350357651710510e-02) (10, -9.24011841416358947754e-02) (11, 6.55169561505317687988e-02) (12, -5.01796603202819824219e-04) (13, -8.84018018841743469238e-02) (14, -2.42998793721199035645e-01) (15, 5.91228827834129333496e-02) (16, 7.90457893162965774536e-03) (17, -2.29963645339012145996e-01) (18, -7.66649618744850158691e-02) (19, -6.95668160915374755859e-02) (20, -4.45398762822151184082e-02) (21, -7.55133256316184997559e-02) (22, -1.39469012618064880371e-01) (23, 9.15515720844268798828e-02) (24, 3.09172328561544418335e-02) (0, -2.12080791592597961426e-01) (1, -3.63222099840641021729e-02) (2, 4.92252968251705169678e-02) (3, -2.26314850151538848877e-02) (4, 2.49779447913169860840e-02) (5, -2.51194953918457031250e-01) (6, -1.24242343008518218994e-01) (7, -1.17948956787586212158e-01) (8, 1.54014125466346740723e-01) (9, 2.53330349922180175781e-01) (10, 9.78752300143241882324e-02) (11, 3.70016172528266906738e-02) (12, 2.80945971608161926270e-02) (13, -9.92714166641235351562e-02) (14, -9.88312125205993652344e-01) (15, 1.74183338880538940430e-01) (16, -7.37580806016921997070e-02) (17, -2.65509635210037231445e-01) (18, -3.39345395565032958984e-01) (19, -8.00743922591209411621e-02) (20, -4.70670722424983978271e-02) (21, 4.34420183300971984863e-02) (22, 2.72256016731262207031e-01) (23, -2.37004309892654418945e-02) (24, 8.13285484910011291504e-02) (0, 4.56549942493438720703e-01) (1, -1.97292655706405639648e-01) (2, -3.08420747518539428711e-01) (3, 3.62725630402565002441e-02) (4, -1.06683582067489624023e-01) (5, 3.16345483064651489258e-01) (6, 5.52780814468860626221e-02) (7, 1.56714722514152526855e-01) (8, -2.11244925856590270996e-01) (9, -3.01480323076248168945e-01) (10, 8.07497873902320861816e-02) (11, 3.91954258084297180176e-02) (12, -2.63602957129478454590e-02) (13, -2.05749496817588806152e-02) (14, 7.59018301963806152344e-01) (15, -1.70190259814262390137e-01) (16, 3.48374694585800170898e-02) (17, 1.50018945336341857910e-01) (18, 3.24119329452514648438e-01) (19, -2.19711437821388244629e-02) (20, 1.72610431909561157227e-02) (21, 1.36032104492187500000e-02) (22, -4.15613591670989990234e-01) (23, 1.68789774179458618164e-01) (24, 4.15714085102081298828e-02) (0, -7.88177728652954101562e-01) (1, 4.88525837659835815430e-01) (2, 1.36424914002418518066e-01) (3, 1.90495580434799194336e-01) (4, 2.54448920488357543945e-01) (5, -2.13257461786270141602e-01) (6, -2.15581908822059631348e-01) (7, -1.40088692307472229004e-01) (8, -5.31529216095805168152e-03) (9, 5.12740254402160644531e-01) (10, -6.09480589628219604492e-03) (11, -8.82056429982185363770e-02) (12, -2.57017761468887329102e-02) (13, -6.71330839395523071289e-02) (14, -7.26885855197906494141e-01) (15, 4.94388416409492492676e-02) (16, -4.14218395948410034180e-01) (17, 2.38617733120918273926e-01) (18, -2.29937076568603515625e-01) (19, -6.95824623107910156250e-03) (20, 3.56481298804283142090e-02) (21, -7.34766796231269836426e-02) (22, 7.73754119873046875000e-01) (23, -4.75217074155807495117e-01) (24, -8.90057012438774108887e-02) (0, -8.67211580276489257812e-01) (1, 7.65726745128631591797e-01) (2, 4.42671090364456176758e-01) (3, 4.33043330907821655273e-01) (4, 1.13691829144954681396e-01) (5, -4.23806309700012207031e-02) (6, -1.25614538788795471191e-01) (7, -2.02180549502372741699e-01) (8, 5.09432926774024963379e-02) (9, 3.95254224538803100586e-01) (10, 3.37868556380271911621e-02) (11, -8.15781056880950927734e-02) (12, 9.21554341912269592285e-02) (13, -1.13067328929901123047e-02) (14, 5.84921948611736297607e-02) (15, 5.38529828190803527832e-02) (16, -1.00337103009223937988e-01) (17, 3.76683831214904785156e-01) (18, -1.23138390481472015381e-01) (19, -8.45346227288246154785e-02) (20, 3.85849848389625549316e-02) (21, 5.70533201098442077637e-02) (22, 4.09327805042266845703e-01) (23, -2.28530824184417724609e-01) (24, 2.57915630936622619629e-02) (0, 6.32319092750549316406e-01) (1, -4.26110446453094482422e-01) (2, -2.39716112613677978516e-01) (3, -1.96004047989845275879e-01) (4, -1.73106566071510314941e-01) (5, 2.22836077213287353516e-01) (6, 1.10065631568431854248e-01) (7, 4.39227856695652008057e-02) (8, -8.53132903575897216797e-02) (9, -2.76001960039138793945e-01) (10, -1.27166658639907836914e-02) (11, 5.72026446461677551270e-02) (12, 1.65728926658630371094e-02) (13, -5.69145381450653076172e-03) (14, 3.66181403398513793945e-01) (15, -6.16015344858169555664e-02) (16, 4.02181893587112426758e-02) (17, -4.97369170188903808594e-02) (18, 1.58865287899971008301e-01) (19, 1.67886763811111450195e-02) (20, -8.06934684514999389648e-02) (21, -2.06270590424537658691e-02) (22, -4.20698702335357666016e-01) (23, 2.09406286478042602539e-01) (24, 4.15224805474281311035e-02) (0, 6.49412274360656738281e-01) (1, -1.35213330388069152832e-01) (2, -1.06986574828624725342e-01) (3, -1.03180751204490661621e-01) (4, -9.79230552911758422852e-02) (5, -6.26601874828338623047e-02) (6, 1.13617911934852600098e-01) (7, 1.51145905256271362305e-01) (8, 5.23722618818283081055e-02) (9, -3.81179124116897583008e-01) (10, 4.77585941553115844727e-03) (11, 4.15579751133918762207e-02) (12, -6.38961791992187500000e-04) (13, 3.91109958291053771973e-02) (14, 6.46047055721282958984e-01) (15, 7.68738612532615661621e-02) (16, 1.73603579401969909668e-01) (17, 2.73310244083404541016e-01) (18, 3.14858227968215942383e-01) (19, 2.07028761506080627441e-02) (20, -2.21452862024307250977e-03) (21, 9.14114192128181457520e-02) (22, -6.88388049602508544922e-01) (23, 1.60236731171607971191e-01) (24, -1.65599863976240158081e-02) (0, -5.86005151271820068359e-01) (1, 1.56742498278617858887e-01) (2, 3.17241251468658447266e-01) (3, 1.80758520960807800293e-01) (4, 2.02451050281524658203e-01) (5, -2.24527925252914428711e-01) (6, -9.45632979273796081543e-02) (7, -1.86826065182685852051e-01) (8, 5.22040668874979019165e-03) (9, 1.62641078233718872070e-01) (10, -9.63265523314476013184e-02) (11, -7.39705339074134826660e-02) (12, -1.01803392171859741211e-02) (13, -7.40817114710807800293e-02) (14, -6.51639878749847412109e-01) (15, 3.49157042801380157471e-02) (16, -3.98005805909633636475e-02) (17, -2.38818824291229248047e-02) (18, -1.63138523697853088379e-01) (19, -3.01948636770248413086e-02) (20, 7.63569846749305725098e-02) (21, 2.26299166679382324219e-02) (22, 4.11269485950469970703e-01) (23, -1.27154439687728881836e-01) (24, -8.60006585717201232910e-02) (0, 4.42213296890258789062e-01) (1, -2.85389214754104614258e-01) (2, -3.37331354618072509766e-01) (3, 9.20847356319427490234e-02) (4, -1.00023120641708374023e-01) (5, -3.19430604577064514160e-02) (6, 1.64040010422468185425e-02) (7, 1.67840585112571716309e-01) (8, -8.12780112028121948242e-03) (9, -2.07863762974739074707e-01) (10, -1.97961926460266113281e-04) (11, 5.57014271616935729980e-02) (12, -2.39117443561553955078e-02) (13, 2.92185619473457336426e-02) (14, 3.19155722856521606445e-01) (15, 8.89542549848556518555e-02) (16, 2.56360054016113281250e-01) (17, 9.29504353553056716919e-03) (18, 2.49079033732414245605e-01) (19, 5.88103011250495910645e-02) (20, 8.64573195576667785645e-02) (21, -6.19869194924831390381e-02) (22, -5.04213094711303710938e-01) (23, 3.02090317010879516602e-01) (24, 8.59041586518287658691e-02) (0, -3.34200710058212280273e-01) (1, -7.24878236651420593262e-02) (2, 4.70586195588111877441e-02) (3, 1.33847892284393310547e-02) (4, -3.65522019565105438232e-02) (5, -3.35682064294815063477e-01) (6, -1.09218828380107879639e-01) (7, -8.73615443706512451172e-02) (8, 1.33827388286590576172e-01) (9, 1.25655815005302429199e-01) (10, -7.58592337369918823242e-02) (11, -8.29655751585960388184e-02) (12, -3.06004732847213745117e-02) (13, 5.64433857798576354980e-02) (14, -9.47736918926239013672e-01) (15, 1.14970222115516662598e-01) (16, 5.66853769123554229736e-03) (17, -4.78046655654907226562e-01) (18, -2.65716344118118286133e-01) (19, 8.54639783501625061035e-02) (20, 8.21670815348625183105e-02) (21, -5.84011040627956390381e-02) (22, 3.83432179689407348633e-01) (23, -1.14213317632675170898e-01) (24, -6.97750672698020935059e-02) (25, -1.96770191192626953125e-01) (26, 7.42475166916847229004e-02) (27, -3.30217480659484863281e-02) (28, 2.32819274067878723145e-01) (29, -5.35812638700008392334e-02) (30, 1.03484600782394409180e-01) (31, 2.21685450524091720581e-02) (32, 1.61398559808731079102e-01) (33, 5.12485243380069732666e-02) (34, 7.76267126202583312988e-02) (35, -1.98278784751892089844e-01) (36, -1.79886501282453536987e-02) (37, -8.89442786574363708496e-02) (38, 8.96446928381919860840e-02) (39, -1.22176721692085266113e-01) (40, -8.13826993107795715332e-02) (41, -7.64828175306320190430e-02) (42, -9.03472304344177246094e-02) (43, 5.74274137616157531738e-02) (44, 7.36596733331680297852e-02) (45, -4.02913242578506469727e-03) (46, -7.29265585541725158691e-02) (47, -1.38270974159240722656e-01) (48, 1.93668469786643981934e-01) (49, 1.72860965132713317871e-01) (50, -7.38519206643104553223e-02) (51, -9.78368148207664489746e-02) (52, -7.24726095795631408691e-02) (53, 3.59114184975624084473e-02) (54, -4.55498918890953063965e-02) (55, -7.14072957634925842285e-02) (56, -1.00883610546588897705e-01) (57, -7.86127224564552307129e-02) (58, 7.16182356700301170349e-03) (59, 2.19402074813842773438e-01) (60, -6.13252520561218261719e-02) (61, 1.25279381871223449707e-01) (62, 5.73431374505162239075e-03) (63, 1.27705723047256469727e-01) (64, 1.12770564854145050049e-01) (65, -8.96703358739614486694e-03) (66, 9.48672369122505187988e-02) (67, -8.47422406077384948730e-02) (68, 1.51790291070938110352e-01) (69, 5.62899932265281677246e-02) (70, -6.95275962352752685547e-02) (71, -2.57567614316940307617e-01) (72, 7.95369520783424377441e-02) (73, -8.02347064018249511719e-02) (74, 1.53329327702522277832e-01) (75, 5.91665655374526977539e-02) (25, 3.43073233962059020996e-02) (26, -2.72017978131771087646e-02) (27, 1.10281601548194885254e-01) (28, 4.26063016057014465332e-02) (29, 4.21306341886520385742e-02) (30, -2.84405499696731567383e-02) (31, 1.05607971549034118652e-01) (32, -7.35717043280601501465e-02) (33, -8.77254679799079895020e-02) (34, -2.20537185668945312500e-02) (35, -4.72908690571784973145e-02) (36, 9.19028371572494506836e-02) (37, -3.20193916559219360352e-02) (38, 6.99716657400131225586e-02) (39, 5.86896687746047973633e-02) (40, 7.42243602871894836426e-02) (41, 2.32939124107360839844e-02) (42, -3.46397124230861663818e-02) (43, 8.04912764579057693481e-03) (44, -3.02702896296977996826e-02) (45, 7.60365873575210571289e-02) (46, -4.59879897534847259521e-02) (47, -4.68118861317634582520e-02) (48, -4.39592171460390090942e-03) (49, -2.01907958835363388062e-02) (50, -3.64233436994254589081e-03) (51, 1.49435214698314666748e-02) (52, 5.54499775171279907227e-02) (53, 7.16315060853958129883e-02) (54, 2.55922786891460418701e-02) (55, 2.65325605869293212891e-02) (56, 6.09998926520347595215e-02) (57, 4.08893562853336334229e-02) (58, 7.43371397256851196289e-02) (59, 3.94240021705627441406e-02) (60, 1.02344751358032226562e-01) (61, -8.98800976574420928955e-03) (62, 1.05847224593162536621e-01) (63, 9.74291935563087463379e-03) (64, 3.31859686411917209625e-03) (65, -4.63028773665428161621e-02) (66, -3.04294191300868988037e-02) (67, 1.63099896162748336792e-02) (68, 2.68206968903541564941e-02) (69, 8.43346565961837768555e-02) (70, -2.29722373187541961670e-02) (71, -9.14815068244934082031e-02) (72, 7.65173323452472686768e-03) (73, -9.03299823403358459473e-02) (74, -4.67607416212558746338e-02) (75, 6.02845586836338043213e-02) 
